I-NP 0.230299 0.452796 0.736788 -0.560305 0.424774 0.077302 0.419721 0.033892 0.146970 -0.622841 0.052005 1.387375 0.179355 0.127116 0.266594 1.078727 -0.471859 -0.080120 0.165790 0.131511 0.525826 0.005126 0.048614 -0.466210 -0.076352 -0.571602 0.730209 -0.176219 -0.134831 0.046554 0.302603 0.307330 -0.536803 0.490723 -0.272015 0.001491 0.559548 -0.099537 0.525320 -0.154945 -0.286386 0.348221 -0.243143 0.032730 -0.233633 0.259714 -0.659613 -0.625491 0.035220 0.985574
B-NP 0.187454 0.386740 0.632918 -0.469995 0.347497 0.135036 0.323970 0.030854 0.097168 -0.534550 0.020410 1.164430 0.127820 0.058540 0.256013 0.925528 -0.377660 -0.055090 0.157236 0.129669 0.471164 0.007852 0.014592 -0.405494 -0.096473 -0.424860 0.680557 -0.146846 -0.106024 0.070842 0.273160 0.358175 -0.559738 0.372513 -0.245224 0.020333 0.509245 -0.084095 0.436244 -0.176720 -0.250365 0.245774 -0.185249 0.036009 -0.194590 0.193802 -0.531477 -0.511480 0.067989 0.800476
O 0.145203 0.298329 0.462640 -0.372057 0.256558 0.153197 0.249831 0.065722 0.068394 -0.399038 -0.030680 0.884065 0.143095 0.051708 0.280894 0.715916 -0.217506 -0.049289 0.124093 0.131730 0.412183 0.001332 0.129734 -0.241319 -0.140483 -0.327620 0.576810 -0.050408 -0.132220 0.047833 0.228917 0.354976 -0.464630 0.223630 -0.248428 -0.022605 0.354407 -0.077973 0.324054 -0.127682 -0.136156 0.138680 -0.123710 0.028892 -0.162053 0.067037 -0.325619 -0.339091 0.135987 0.577266
B-VP 0.183623 0.446983 0.693483 -0.445607 0.333412 0.301854 0.278623 0.084047 0.030821 -0.554611 -0.028351 1.209923 0.133410 -0.009313 0.374742 0.963864 -0.292429 -0.056190 0.181390 0.164203 0.530488 0.007024 0.098051 -0.402478 -0.150931 -0.327386 0.840021 -0.086085 -0.137266 0.142978 0.354038 0.590902 -0.775863 0.271370 -0.310335 -0.002456 0.509667 -0.065786 0.441260 -0.224837 -0.221915 0.164743 -0.179334 0.053034 -0.215688 0.083772 -0.485801 -0.510013 0.138120 0.779756
B-PP 0.172176 0.402549 0.647682 -0.486083 0.352047 0.096158 0.385576 0.053305 0.066813 -0.575604 0.006227 1.220111 0.155248 0.104821 0.276049 1.007796 -0.420542 -0.060610 0.173167 0.147049 0.562244 -0.016160 0.049808 -0.424300 -0.139658 -0.461124 0.713665 -0.165216 -0.155838 0.035753 0.271720 0.339776 -0.538651 0.364089 -0.295693 0.010711 0.515660 -0.108764 0.472794 -0.148217 -0.280351 0.274758 -0.230437 0.103780 -0.179249 0.204589 -0.541348 -0.503860 0.104809 0.859482
I-VP 0.184108 0.453753 0.749855 -0.483342 0.331598 0.328195 0.279690 0.069638 0.053553 -0.603351 -0.043092 1.310071 0.083434 -0.011957 0.397116 1.014388 -0.321157 -0.077666 0.150876 0.206543 0.533138 -0.016104 0.015975 -0.476347 -0.156536 -0.302953 0.874806 -0.099556 -0.085045 0.168020 0.400379 0.634765 -0.887738 0.302717 -0.320813 0.009489 0.588819 -0.046112 0.444231 -0.303398 -0.259793 0.174410 -0.136637 0.052410 -0.180258 0.114723 -0.544096 -0.540917 0.103953 0.758687
B-ADVP 0.148494 0.241448 0.543921 -0.502262 0.192345 0.270829 0.243162 0.064250 0.232979 -0.427959 -0.008446 1.010262 0.088700 0.003708 0.370262 0.787416 -0.241048 -0.049435 0.050772 0.223859 0.430918 0.028521 -0.022713 -0.275671 -0.194436 -0.380112 0.660550 -0.010064 -0.035087 0.196486 0.346221 0.486756 -0.708896 0.345797 -0.237623 0.004075 0.493231 -0.104325 0.224498 -0.330732 -0.143391 0.139544 0.040106 -0.130869 -0.142460 0.129043 -0.409679 -0.377703 0.146574 0.594318
B-SBAR 0.138220 0.315831 0.457613 -0.263491 0.208902 0.360777 0.088813 0.074209 -0.005402 -0.351329 -0.041075 0.738577 0.071416 -0.111588 0.304414 0.607921 -0.121414 0.004670 0.159382 0.114811 0.341634 0.054804 0.072654 -0.251013 -0.126281 -0.124339 0.638118 -0.001251 -0.093232 0.172527 0.254202 0.562307 -0.645086 0.100348 -0.219212 0.019675 0.363683 -0.045731 0.253833 -0.200075 -0.095210 0.021649 -0.071786 0.000430 -0.156174 -0.015012 -0.247307 -0.307062 0.147916 0.428015
B-ADJP 0.136057 0.465796 0.536349 -0.240059 0.292763 0.378181 0.189949 0.176720 -0.206863 -0.453549 -0.070092 0.892075 0.191601 -0.102382 0.357994 0.799281 -0.133191 0.003342 0.300146 0.101318 0.561191 0.062596 0.320474 -0.232205 -0.211121 -0.151015 0.824077 -0.021877 -0.309977 0.106681 0.263797 0.661187 -0.638583 0.020164 -0.342325 -0.038792 0.273211 -0.102090 0.396368 -0.049311 -0.088837 0.028145 -0.276218 0.205424 -0.241767 -0.111754 -0.216002 -0.310912 0.286232 0.605404
I-ADJP 0.073970 0.422688 0.315702 0.004742 0.220650 0.365519 0.074651 0.210630 -0.408859 -0.291464 -0.093151 0.446827 0.207189 -0.161702 0.266045 0.502065 0.025558 0.050927 0.357564 0.007303 0.479190 0.085407 0.462356 -0.066385 -0.201718 0.055385 0.662431 0.017455 -0.401848 0.039826 0.132756 0.595632 -0.395938 -0.221446 -0.304165 -0.062099 0.012458 -0.095984 0.317757 0.132332 0.018036 -0.094228 -0.349595 0.326635 -0.228782 -0.271206 0.047839 -0.101164 0.345072 0.354916
B-PRT 0.104917 0.250840 0.449845 -0.312311 0.195478 0.132678 0.203004 0.007698 0.072138 -0.363749 -0.009185 0.802670 0.033587 0.032982 0.213042 0.612466 -0.234686 -0.053780 0.058879 0.114866 0.297796 -0.025070 -0.032139 -0.323624 -0.062104 -0.213366 0.479766 -0.090902 -0.017149 0.078385 0.221524 0.310051 -0.501112 0.216721 -0.187303 0.020308 0.376946 -0.017872 0.285593 -0.181343 -0.192516 0.133754 -0.089950 0.024524 -0.085791 0.117512 -0.383991 -0.361421 0.025105 0.490307
I-ADVP 0.048122 -0.093348 0.137271 -0.291016 -0.055780 0.119764 0.042347 0.009117 0.332170 -0.055783 0.024230 0.274799 -0.015243 0.000191 0.171960 0.154517 -0.040317 -0.030719 -0.129692 0.165981 0.050978 0.029170 -0.150580 0.009460 -0.097815 -0.211770 0.128289 0.086053 0.128283 0.180038 0.202482 0.137015 -0.303721 0.258370 -0.004362 -0.000361 0.217489 -0.064602 -0.128837 -0.295707 0.020836 0.046945 0.268026 -0.293311 -0.011660 0.098659 -0.134182 -0.070671 0.034533 0.085954
I-PP 0.039926 0.057086 0.128293 -0.199896 0.145012 -0.206889 0.245086 -0.059450 0.074713 -0.252328 -0.003003 0.412371 0.039411 0.196253 -0.025803 0.410698 -0.326306 -0.013107 0.026356 0.062294 0.245865 -0.059457 -0.149184 -0.253988 -0.074781 -0.280735 0.096314 -0.177381 -0.032382 -0.137151 -0.047609 -0.172630 0.049950 0.196886 -0.101610 0.063639 0.301843 -0.070459 0.194680 -0.008260 -0.225610 0.204208 -0.081102 0.116254 0.050759 0.251094 -0.235937 -0.129327 -0.003932 0.319258
I-CONJP -0.123945 -0.336026 -0.496960 0.350678 -0.212782 -0.401275 -0.187286 -0.109262 0.012176 0.466107 0.108598 -0.904590 -0.098430 0.063461 -0.428505 -0.818841 0.170731 -0.009950 -0.183483 -0.205820 -0.550817 -0.032519 -0.105028 0.315847 0.276228 0.172575 -0.789853 0.012118 0.158105 -0.150863 -0.276694 -0.678036 0.778700 -0.068921 0.357262 -0.023525 -0.476599 0.103109 -0.292508 0.237640 0.142857 -0.007339 0.062990 -0.084013 0.116011 0.018931 0.244694 0.281483 -0.284859 -0.482820
I-SBAR 0.018040 0.011598 -0.008825 0.047199 -0.001869 0.117263 -0.105192 -0.013809 -0.019590 0.022767 -0.017575 -0.078240 -0.037304 -0.085181 0.014717 -0.057916 0.050368 0.030759 0.017080 -0.009255 -0.058192 0.026263 -0.046742 -0.017108 0.013349 0.106447 0.030345 0.031395 0.038604 0.059301 -0.000634 0.108878 -0.098529 -0.069792 0.021324 0.032617 0.038651 0.030172 -0.030171 -0.051416 0.018762 -0.070319 0.047957 -0.037272 0.002889 -0.039010 0.053391 0.013759 -0.003850 -0.097823
B-CONJP -0.093016 -0.254056 -0.385751 0.265691 -0.159965 -0.314544 -0.143005 -0.084234 0.011484 0.356625 0.081353 -0.691052 -0.071462 0.053871 -0.329192 -0.632112 0.134392 -0.008828 -0.144862 -0.159961 -0.429333 -0.025202 -0.069810 0.246230 0.217697 0.125897 -0.613446 0.010493 0.121866 -0.124359 -0.213145 -0.526125 0.607255 -0.048737 0.275125 -0.020885 -0.368751 0.083067 -0.220964 0.191729 0.110979 -0.001859 0.046843 -0.066719 0.084581 0.012051 0.185038 0.213465 -0.225590 -0.370070
B-INTJ -0.116763 -0.296969 -0.481418 0.312605 -0.205077 -0.207952 -0.205602 -0.069348 -0.021693 0.396811 -0.006884 -0.835480 -0.092362 0.031809 -0.225416 -0.695087 0.246160 0.008995 -0.151981 -0.111539 -0.391643 -0.053122 -0.026394 0.309131 0.115533 0.243653 -0.567643 0.075959 0.104775 -0.113571 -0.231250 -0.395366 0.519440 -0.215158 0.202486 -0.012746 -0.367383 0.069528 -0.284824 0.155729 0.157221 -0.138518 0.121804 -0.039641 0.144562 -0.105125 0.364920 0.353071 -0.096764 -0.559827
B-LST -0.113698 -0.266509 -0.446838 0.314041 -0.215662 -0.174769 -0.196742 -0.042314 -0.042666 0.366024 0.003595 -0.791880 -0.062888 -0.014515 -0.238782 -0.651310 0.234858 0.038944 -0.105922 -0.113955 -0.360327 -0.002790 -0.031392 0.265476 0.110902 0.247289 -0.520617 0.065660 0.076690 -0.098979 -0.230942 -0.333007 0.472281 -0.224851 0.199491 -0.006862 -0.353725 0.074696 -0.265227 0.140132 0.158764 -0.125966 0.119233 -0.046572 0.128453 -0.085040 0.324641 0.324547 -0.095914 -0.520729
I-INTJ -0.217032 -0.515900 -0.826882 0.563828 -0.383206 -0.324922 -0.370700 -0.106432 -0.060818 0.692563 0.001620 -1.462078 -0.164925 0.010089 -0.393843 -1.199063 0.412313 0.034376 -0.241473 -0.208669 -0.665667 -0.054563 -0.075895 0.522876 0.197583 0.453705 -0.974645 0.137145 0.175944 -0.177117 -0.391346 -0.655688 0.885180 -0.384899 0.364856 -0.023125 -0.635104 0.108934 -0.517296 0.260129 0.286567 -0.242541 0.205045 -0.057718 0.263783 -0.169681 0.627004 0.618521 -0.167319 -0.980795
I-UCP -0.217244 -0.516494 -0.817481 0.541671 -0.376390 -0.288456 -0.348999 -0.124774 -0.077025 0.670628 0.047410 -1.420777 -0.202671 -0.052862 -0.466353 -1.179835 0.389950 0.061813 -0.196342 -0.214875 -0.682602 0.016587 -0.135563 0.484937 0.210095 0.451076 -0.976078 0.082358 0.165139 -0.137389 -0.402201 -0.623401 0.831438 -0.325261 0.392425 0.032794 -0.609763 0.074239 -0.522613 0.246970 0.270297 -0.247698 0.217176 -0.074917 0.230698 -0.137090 0.576566 0.581480 -0.149160 -0.965231
B-UCP -0.208216 -0.477204 -0.746836 0.522501 -0.379466 -0.264429 -0.338933 -0.101009 -0.072868 0.625582 0.012353 -1.342480 -0.166238 -0.033095 -0.402737 -1.106293 0.362979 0.065042 -0.209902 -0.190220 -0.622671 -0.007942 -0.105883 0.436505 0.173957 0.420344 -0.889784 0.112615 0.168997 -0.121607 -0.376673 -0.568839 0.781519 -0.328181 0.347122 0.000083 -0.574736 0.093629 -0.483275 0.236194 0.237130 -0.227028 0.204065 -0.071311 0.228022 -0.136007 0.556653 0.563312 -0.161737 -0.907696
I-LST -0.217673 -0.469116 -0.771644 0.544448 -0.386983 -0.281369 -0.349252 -0.077145 -0.064856 0.631444 0.019930 -1.373985 -0.148640 -0.015756 -0.411256 -1.108895 0.377511 0.048339 -0.198691 -0.177553 -0.605318 -0.016861 -0.095814 0.445712 0.184924 0.426423 -0.914970 0.111724 0.155696 -0.139923 -0.368788 -0.577702 0.797428 -0.355558 0.346326 -0.005709 -0.603401 0.103393 -0.486624 0.224550 0.256468 -0.204491 0.200414 -0.068189 0.236330 -0.140982 0.548683 0.567995 -0.179425 -0.894134
I-PRT -0.225178 -0.473549 -0.743569 0.537057 -0.392073 -0.273914 -0.341418 -0.083177 -0.074872 0.632005 0.027200 -1.349539 -0.170281 -0.031147 -0.381205 -1.095320 0.366542 0.059308 -0.215485 -0.182547 -0.604717 -0.015524 -0.093771 0.457380 0.176974 0.448613 -0.891785 0.130995 0.154973 -0.102559 -0.361979 -0.571786 0.753595 -0.371602 0.330289 0.015886 -0.583216 0.122630 -0.490155 0.225773 0.253295 -0.229940 0.187116 -0.056729 0.240604 -0.136567 0.546356 0.544547 -0.151678 -0.872364