NN 0.183994 0.038464 0.424293 0.048590 -0.048235 0.115806 0.469783 -0.127205 -0.278809 -0.128253 0.075821 -0.040987 0.201854 -0.091843 0.047900 -0.332759 -0.010968 -0.180523 0.057863 -0.105883 0.101668 0.103531 -0.191781 0.026947 -0.388624 0.131517 0.289398 0.120980 0.447418 0.005173 -0.267057 -0.069097 -0.536592 0.031220 0.127719 0.161323 0.084960 -0.219333 -0.088490 0.604528 -0.021827 0.030563 0.191090 0.066610 -0.057552 0.000773 -0.304253 0.386536 -0.080346 0.093965
IN 0.089256 0.108605 0.356569 0.022057 0.003464 0.095940 0.379137 -0.089625 -0.159640 -0.158496 0.058199 -0.001251 0.206633 0.005342 -0.039181 -0.331331 -0.000064 -0.198409 0.083761 -0.064976 0.030220 0.062408 -0.138728 0.035171 -0.350524 0.116090 0.173365 0.102215 0.357875 -0.008160 -0.189760 -0.141974 -0.389414 0.008861 0.061533 0.211110 0.050749 -0.127105 -0.072504 0.483649 0.031023 0.000113 0.162819 -0.006266 -0.090399 0.012713 -0.303451 0.183857 0.012704 0.125547
NNP 0.368967 -0.495291 0.316100 0.136672 -0.194960 -0.035427 0.061056 0.087475 -0.397326 0.003343 0.140687 0.040423 -0.280478 -0.269010 0.143563 -0.047844 -0.276402 0.005318 0.324928 -0.198564 0.199639 0.113898 0.197652 0.021002 -0.307529 0.022557 0.654285 -0.016975 0.517667 -0.394793 -0.048355 -0.138422 -0.310691 -0.086773 -0.005834 0.210327 0.225969 -0.266285 -0.068982 0.269133 -0.348688 -0.111802 0.132357 0.449456 0.074928 0.037125 -0.194060 0.303002 -0.346344 -0.105461
DT 0.089463 0.153703 0.259609 -0.024638 -0.009106 0.056795 0.317577 -0.116897 -0.102886 -0.061340 0.032681 -0.107389 0.176449 0.016149 0.019083 -0.186265 -0.008270 -0.121942 -0.069200 -0.048690 0.046401 0.051941 -0.217197 -0.006848 -0.207067 0.105881 0.016474 0.141204 0.250811 0.104960 -0.200098 0.024562 -0.310797 0.026959 0.115275 0.080946 0.048555 -0.105722 -0.092360 0.369126 0.057747 0.062855 0.132522 -0.024884 -0.011614 0.012767 -0.158485 0.211301 -0.062093 0.055841
NNS 0.082524 0.199464 0.366295 -0.075515 -0.008417 0.081904 0.549257 -0.198687 -0.111729 -0.098780 0.019322 -0.198453 0.265451 0.036325 0.004043 -0.281603 0.032850 -0.171600 -0.079484 -0.098757 0.054716 0.062366 -0.327529 -0.004817 -0.318996 0.147343 0.022668 0.174824 0.416308 0.128249 -0.286705 0.055773 -0.432061 0.040673 0.143091 0.140065 0.101020 -0.154088 -0.132084 0.531112 0.119649 0.077140 0.135288 -0.019292 -0.054162 0.014323 -0.255375 0.294341 -0.071509 0.114818
JJ 0.145881 0.142232 0.375177 -0.048154 -0.036679 0.092959 0.512098 -0.178021 -0.202209 -0.070880 0.051739 -0.198763 0.235252 -0.014980 0.075181 -0.264763 -0.008330 -0.161601 -0.073172 -0.102244 0.101352 0.086588 -0.319376 -0.014685 -0.342680 0.153464 0.080071 0.188351 0.424712 0.091239 -0.322649 0.041386 -0.474873 0.069256 0.165238 0.090977 0.101724 -0.186074 -0.143617 0.556791 0.054739 0.069048 0.125317 0.025854 -0.022662 0.030618 -0.233290 0.345824 -0.143558 0.063760
, 0.137310 -0.103070 0.213134 0.005255 -0.029753 0.022567 0.241789 -0.070840 -0.165826 0.051345 0.016344 -0.119528 -0.043115 -0.058374 0.092422 -0.036005 -0.040567 0.062779 0.078190 -0.100091 0.119917 0.056035 -0.110607 0.018021 -0.124241 0.039311 0.110865 0.023884 0.204485 -0.039057 -0.095175 0.058705 -0.239817 -0.022810 0.108945 0.111689 0.146796 -0.130703 -0.055580 0.300091 -0.052567 0.096981 0.136347 0.159520 -0.050343 -0.068817 -0.142291 0.304293 -0.188703 -0.046275
. 0.078436 -0.056766 0.207514 0.077471 -0.011459 0.065889 0.139827 0.014170 -0.146904 -0.094384 0.067048 0.096949 0.056945 -0.040981 -0.007695 -0.210418 -0.009052 -0.096341 0.173241 -0.045311 0.039134 0.044252 0.046131 0.041559 -0.235735 0.046394 0.251454 -0.021960 0.217003 -0.125273 -0.040579 -0.154999 -0.212145 -0.011836 -0.000897 0.132453 0.049257 -0.091431 -0.015233 0.267864 -0.052521 -0.043924 0.091084 0.068743 -0.084511 -0.022351 -0.221590 0.088869 0.016741 0.058038
CD 0.015100 0.000787 0.508376 0.461536 0.129081 0.292691 0.230662 0.154551 -0.382286 -0.632571 0.170403 0.816474 0.258779 -0.015906 -0.418696 -0.944713 0.223982 -0.490787 0.813304 0.115934 0.059647 0.007382 0.577852 0.303205 -0.767392 -0.065403 0.653404 -0.388066 0.378142 -0.513805 0.298962 -0.889952 -0.439125 -0.214545 -0.256428 0.727339 -0.055728 0.102510 0.220747 0.709853 -0.081363 -0.227425 0.363896 0.076396 -0.612233 -0.200196 -1.106837 -0.276675 0.666057 0.488956
VBD 0.167690 -0.011032 0.352923 -0.001042 -0.021637 0.071423 0.408820 -0.098385 -0.161146 0.035034 -0.000114 -0.066826 0.031972 0.052786 0.026774 -0.194638 -0.012198 -0.030658 0.083123 -0.096247 0.103726 0.041167 -0.186426 0.010830 -0.309088 0.062293 0.101700 0.112596 0.339855 0.023313 -0.223949 -0.014885 -0.388106 -0.100498 0.131073 0.230989 0.153506 -0.146164 -0.062250 0.533344 0.045621 0.142274 0.263047 0.068317 -0.083623 -0.003291 -0.269929 0.356802 -0.167741 0.058009
RB -0.002478 0.229742 0.142597 -0.130148 0.078555 0.061446 0.362435 -0.182995 0.047069 0.092572 -0.089044 -0.212502 0.162143 0.171329 0.038654 -0.082746 0.109963 -0.010966 -0.214623 0.043007 -0.009966 0.002308 -0.326750 -0.045722 -0.094114 0.021058 -0.268459 0.159453 0.106032 0.255758 -0.277916 0.187976 -0.209181 0.034602 0.200571 0.017584 0.063915 -0.043728 -0.053513 0.352086 0.194890 0.221022 0.107036 -0.099798 -0.077743 0.016739 -0.039747 0.279703 -0.102334 0.032026
VB 0.004412 0.268900 0.227248 -0.170927 0.073545 0.020795 0.446070 -0.201120 0.121469 0.127996 -0.073097 -0.273741 0.183378 0.240274 -0.025082 -0.097745 0.092890 0.008948 -0.251652 -0.003896 -0.050521 -0.071887 -0.393413 -0.074539 -0.169282 0.091855 -0.229032 0.259710 0.210274 0.282444 -0.330018 0.203501 -0.224705 -0.007888 0.197340 0.039293 0.109723 -0.098885 -0.094022 0.402907 0.267730 0.221137 0.169528 -0.143556 -0.010345 0.063406 -0.055933 0.331425 -0.168917 0.079776
CC 0.095800 0.013368 0.273059 0.042236 -0.006126 0.073752 0.312084 -0.093708 -0.167304 -0.063662 0.026333 -0.047215 0.090775 -0.001535 0.018646 -0.206709 0.003120 -0.076152 0.083920 -0.046751 0.074329 0.034427 -0.106259 0.040936 -0.273181 0.063088 0.127759 0.041000 0.295483 -0.031403 -0.146972 -0.051008 -0.303491 -0.018881 0.066884 0.164193 0.090482 -0.116984 -0.055248 0.410611 0.025604 0.048262 0.144118 0.065915 -0.091622 -0.019606 -0.277546 0.214705 -0.077128 0.076190
TO 0.052082 0.206977 0.393816 0.004259 0.074134 0.101896 0.463792 -0.109433 -0.052658 -0.097796 0.020598 0.007983 0.227702 0.174102 -0.121056 -0.367871 0.105063 -0.152123 0.062991 -0.005452 0.016471 -0.030855 -0.177292 0.033516 -0.401677 0.089423 0.039308 0.129258 0.330788 0.064743 -0.197673 -0.114326 -0.363290 -0.087793 0.089989 0.262483 0.089541 -0.074906 -0.039230 0.601474 0.164698 0.123808 0.277588 -0.074105 -0.166018 0.000520 -0.415575 0.204233 0.013610 0.206640
VBN 0.074394 0.200563 0.300604 -0.088220 0.050792 0.056999 0.438816 -0.150064 -0.034638 -0.001069 -0.011159 -0.157340 0.190748 0.132008 -0.007546 -0.197604 0.060779 -0.082300 -0.084102 -0.021051 0.007925 0.047268 -0.295155 -0.020145 -0.235029 0.082767 -0.069760 0.172644 0.276959 0.156752 -0.272223 0.073842 -0.328248 0.019968 0.160694 0.116062 0.092765 -0.123386 -0.068205 0.470306 0.146411 0.137900 0.157676 -0.041187 -0.076953 -0.001639 -0.202881 0.291651 -0.084695 0.079587
VBZ 0.086433 0.034581 0.019880 -0.164777 -0.029820 -0.024584 0.190176 -0.129714 -0.014627 0.197377 -0.067367 -0.286632 -0.000223 0.046928 0.157061 0.169048 -0.012928 0.125467 -0.276633 -0.024315 0.053352 0.065844 -0.318905 -0.101463 0.105843 0.007456 -0.186557 0.180930 0.053812 0.228668 -0.241936 0.292958 -0.117599 0.059336 0.230129 -0.122552 0.081543 -0.080225 -0.072628 0.110820 0.039802 0.203048 0.011709 0.027623 0.108604 0.061926 0.201214 0.355494 -0.259681 -0.123623
PRP -0.023246 0.078056 -0.162979 -0.236458 0.034705 -0.051637 0.094998 -0.135074 0.195996 0.370255 -0.165148 -0.331361 -0.100115 0.221115 0.138469 0.330491 0.055588 0.261501 -0.391579 -0.004693 -0.014372 -0.041222 -0.368646 -0.139994 0.264132 -0.058909 -0.438071 0.190998 -0.151520 0.363488 -0.215736 0.427394 0.077188 0.004046 0.265330 -0.187960 0.086679 -0.010523 -0.055903 -0.040312 0.153499 0.299109 0.014182 -0.061619 0.105040 0.061306 0.393505 0.325502 -0.302522 -0.162167
VBG 0.103498 0.195051 0.302481 -0.144886 -0.013688 0.043321 0.459959 -0.161005 -0.034311 0.034266 0.016656 -0.259153 0.215711 0.098798 0.053897 -0.128264 -0.001679 -0.049880 -0.159817 -0.094987 0.053078 0.052074 -0.410085 -0.045554 -0.195893 0.149638 -0.077726 0.243818 0.321635 0.187691 -0.323785 0.136104 -0.343930 0.034656 0.195406 0.045007 0.107669 -0.145677 -0.153290 0.467166 0.123851 0.161006 0.161285 -0.033785 0.042457 0.066001 -0.106808 0.331263 -0.192445 0.046965
VBP -0.040889 0.281082 -0.043245 -0.265264 0.025600 -0.045671 0.273467 -0.226263 0.185368 0.181118 -0.103246 -0.455744 0.139878 0.150833 0.136470 0.181854 0.025862 0.066544 -0.465558 -0.023237 -0.036113 0.000389 -0.498608 -0.118255 0.171653 0.078020 -0.488955 0.294555 -0.024557 0.415501 -0.302954 0.437295 -0.040958 0.119758 0.221813 -0.218898 0.031184 -0.049878 -0.152791 0.055130 0.210188 0.237503 -0.054019 -0.150760 0.147945 0.076604 0.275998 0.221114 -0.243483 -0.068837
MD 0.007893 0.146265 0.078764 -0.156945 0.048256 -0.006088 0.282502 -0.170134 0.110570 0.187937 -0.102242 -0.261687 0.051308 0.164594 0.030712 0.047621 0.061392 0.082883 -0.253347 0.001837 -0.038919 -0.052208 -0.302424 -0.075669 -0.020250 0.018292 -0.240190 0.187099 0.085037 0.248993 -0.249111 0.257144 -0.113598 0.003467 0.180658 -0.022951 0.098697 -0.070479 -0.057419 0.207494 0.188845 0.202045 0.098399 -0.077772 0.017720 0.045612 0.079654 0.307367 -0.188974 -0.004894
PRP$ 0.129720 0.144617 0.377866 -0.119548 -0.042956 0.036616 0.521457 -0.200281 -0.089854 -0.008127 0.028587 -0.278391 0.184472 0.043691 0.048883 -0.168039 -0.054597 -0.104071 -0.125542 -0.135847 0.060480 0.026985 -0.373702 -0.041808 -0.312098 0.182929 0.025708 0.276826 0.443352 0.148998 -0.365948 0.098737 -0.418322 0.009700 0.160564 0.076864 0.121809 -0.209832 -0.169123 0.507328 0.098174 0.121812 0.159299 -0.021393 0.056832 0.068064 -0.155237 0.354449 -0.242828 0.042667
POS 0.237151 -0.071434 0.444484 0.064337 -0.139168 0.042069 0.347459 -0.051013 -0.287491 -0.202310 0.135785 -0.041403 0.116876 -0.199834 0.033946 -0.270760 -0.177505 -0.223335 0.147011 -0.162905 0.116956 0.090251 -0.058037 0.038278 -0.408098 0.188004 0.396739 0.127882 0.512682 -0.128314 -0.175950 -0.163866 -0.464600 0.007454 -0.005316 0.167095 0.086779 -0.237124 -0.140241 0.409410 -0.123478 -0.109516 0.130162 0.120323 0.059225 0.028299 -0.327302 0.186062 -0.136601 0.068751
$ 0.022748 0.064452 0.596392 0.479743 0.165197 0.313474 0.303222 0.135511 -0.422917 -0.613761 0.187133 0.801187 0.329844 0.041682 -0.445913 -1.023991 0.267694 -0.501210 0.821911 0.142124 0.058946 0.027600 0.518574 0.314704 -0.824630 -0.040329 0.661683 -0.392575 0.442494 -0.504431 0.265310 -0.892685 -0.502265 -0.193226 -0.246393 0.788351 -0.039769 0.060080 0.202600 0.853769 -0.008730 -0.228536 0.410388 0.107294 -0.656716 -0.217796 -1.210533 -0.242497 0.648910 0.515854
`` -0.028261 -0.037326 -0.336838 -0.234155 -0.069844 -0.135692 -0.169139 -0.068377 0.195608 0.344540 -0.132187 -0.380700 -0.159098 0.028786 0.219373 0.531630 -0.083658 0.284015 -0.432138 -0.029001 -0.022276 -0.022284 -0.280254 -0.162918 0.445331 -0.011707 -0.386132 0.176025 -0.277758 0.290051 -0.132332 0.458728 0.257491 0.084188 0.152933 -0.379348 -0.004210 0.000610 -0.076173 -0.419003 0.026553 0.157033 -0.199370 -0.043126 0.294055 0.104812 0.626217 0.156536 -0.329554 -0.265225
'' 0.057833 -0.223953 -0.211606 -0.113716 -0.080993 -0.111651 -0.192600 0.003145 0.045651 0.293500 -0.057529 -0.228212 -0.247798 -0.060111 0.209359 0.419945 -0.121791 0.287166 -0.179197 -0.082104 0.037082 0.013627 -0.089659 -0.116247 0.297131 -0.027157 -0.055681 0.072853 -0.129278 0.052832 -0.041527 0.284918 0.174456 0.039306 0.126611 -0.259064 0.076386 -0.063618 -0.054069 -0.295197 -0.113225 0.077725 -0.134727 0.114094 0.219826 0.054779 0.456867 0.208405 -0.327577 -0.272364
: -0.004350 -0.040900 -0.044943 0.075106 -0.046200 0.027165 -0.080854 0.041845 -0.080339 -0.136611 0.015526 0.145268 0.009272 -0.068736 -0.020638 -0.086987 0.008081 -0.138597 0.066376 0.050334 0.013492 0.006992 0.157194 0.025452 -0.059122 -0.053463 0.087742 -0.099145 0.046035 -0.094604 0.058189 -0.102595 0.002680 -0.020111 -0.053813 0.047698 -0.070046 0.072625 0.078590 -0.029425 -0.085908 -0.075676 -0.052606 0.032050 -0.036005 0.017735 -0.068140 -0.122888 0.136185 0.057767
WDT 0.078549 0.094350 0.219924 -0.081704 0.017652 0.030415 0.358684 -0.155748 -0.074015 0.037771 -0.033237 -0.176327 0.109995 0.057967 0.023585 -0.103828 0.032385 -0.036668 -0.101527 -0.020057 0.032566 0.034541 -0.237396 -0.022451 -0.149021 0.046685 -0.059333 0.146533 0.240620 0.126720 -0.219724 0.124697 -0.264726 0.016734 0.160038 0.090679 0.101107 -0.105334 -0.055907 0.358809 0.091531 0.139364 0.114937 0.030030 -0.031942 0.002739 -0.115721 0.305834 -0.143923 0.035841
JJR -0.041388 0.239084 0.238996 -0.052226 0.072990 0.105778 0.404829 -0.170029 -0.006777 -0.055135 -0.045740 -0.094894 0.279202 0.128684 -0.055977 -0.254187 0.119956 -0.093592 -0.056041 0.049684 -0.029060 0.001239 -0.259674 0.034547 -0.214830 0.090032 -0.099739 0.102731 0.174165 0.151952 -0.230440 0.004188 -0.266196 0.042308 0.110226 0.129025 0.005363 -0.051231 -0.053685 0.438839 0.219580 0.124289 0.112481 -0.130888 -0.123860 -0.006634 -0.226343 0.186837 0.038968 0.145746
WP 0.073661 0.029582 -0.043058 -0.204886 -0.049146 -0.081355 0.133114 -0.099110 0.122252 0.267088 -0.071216 -0.324614 -0.080548 0.106468 0.156906 0.243599 -0.055890 0.172151 -0.294255 -0.076474 0.018875 0.015745 -0.321534 -0.120580 0.157524 0.019214 -0.267774 0.204547 0.006701 0.237551 -0.220767 0.345872 -0.013319 0.003554 0.185260 -0.135993 0.100163 -0.063523 -0.101906 0.010058 0.073740 0.205665 0.019715 -0.018352 0.169016 0.097563 0.266783 0.257780 -0.303304 -0.124309
WRB 0.006795 0.053103 -0.119008 -0.152901 -0.003198 -0.056906 0.053655 -0.112607 0.112047 0.218334 -0.090786 -0.282716 -0.082655 0.071721 0.117164 0.251551 -0.016218 0.157259 -0.295854 -0.020495 0.011202 -0.035324 -0.248418 -0.093477 0.172177 -0.023638 -0.281055 0.173404 -0.077790 0.251465 -0.159453 0.316159 0.045773 0.018580 0.150475 -0.182995 0.048378 -0.027976 -0.062802 -0.075065 0.079727 0.183169 -0.021853 -0.042390 0.133656 0.064803 0.306329 0.198632 -0.245125 -0.128377
NNPS 0.219409 -0.171285 0.233647 0.009746 -0.124425 -0.046313 0.168063 -0.019337 -0.119654 0.027730 0.071960 -0.132499 -0.130577 -0.123707 0.131520 -0.002041 -0.214806 0.006490 0.078150 -0.176684 0.093016 0.030206 -0.051759 0.000528 -0.181474 0.087502 0.186262 0.135488 0.304359 -0.084855 -0.144367 0.011663 -0.220911 -0.066031 0.017163 0.065540 0.150754 -0.177682 -0.134518 0.223477 -0.116080 0.039832 0.139446 0.127009 0.132425 0.054804 -0.103829 0.193710 -0.299865 -0.035098
JJS 0.133085 0.118570 0.356523 -0.005344 -0.074822 0.060143 0.379296 -0.117803 -0.187351 -0.195143 0.089388 -0.084842 0.233847 -0.094360 -0.014266 -0.277445 -0.078730 -0.246751 -0.009403 -0.091319 0.065493 0.074538 -0.175828 0.019124 -0.307749 0.176996 0.164485 0.170347 0.389693 0.051650 -0.209339 -0.083923 -0.422497 0.047061 0.036849 0.107014 0.009870 -0.164796 -0.136511 0.369805 0.010251 -0.040475 0.094954 -0.017729 0.035275 0.026377 -0.252059 0.126376 -0.042744 0.091883
RBR -0.002191 0.189819 0.254366 0.062340 0.087214 0.129092 0.295903 -0.058421 -0.103992 -0.153883 0.049010 0.068231 0.243550 0.057137 -0.043598 -0.351297 0.125144 -0.165067 0.097845 0.021252 0.011967 0.047833 -0.101505 0.056306 -0.275840 0.067479 0.054208 0.002787 0.158955 0.008436 -0.099552 -0.123344 -0.280567 0.038009 0.044639 0.133447 0.011521 -0.046908 -0.013908 0.427858 0.095327 0.030871 0.133413 -0.076376 -0.198979 -0.070878 -0.327797 0.082702 0.150497 0.146283
) -0.122796 -0.307312 -0.352935 0.314447 0.048211 0.036102 -0.678154 0.335589 -0.058615 -0.200919 0.061448 0.666436 -0.233621 -0.116862 -0.202585 -0.068783 0.092422 -0.038378 0.469409 0.159760 -0.029588 -0.023607 0.789567 0.132033 0.122374 -0.287980 0.381681 -0.523707 -0.330784 -0.488334 0.612112 -0.472973 0.419174 -0.101418 -0.313767 0.142157 -0.152471 0.266965 0.292600 -0.475903 -0.282539 -0.324029 -0.128020 0.182842 -0.232300 -0.115749 -0.121953 -0.545375 0.501720 0.055697
( -0.135280 -0.324153 -0.370990 0.330931 0.050598 0.030367 -0.724330 0.358696 -0.058526 -0.222441 0.058901 0.691325 -0.241302 -0.132779 -0.212385 -0.051579 0.087406 -0.040359 0.482208 0.153001 -0.037684 -0.026037 0.818260 0.139513 0.142585 -0.291760 0.391844 -0.543039 -0.362864 -0.500656 0.646306 -0.503010 0.447933 -0.099350 -0.349150 0.145450 -0.168214 0.274130 0.292779 -0.525535 -0.300410 -0.351408 -0.145018 0.192714 -0.223673 -0.118962 -0.109511 -0.587209 0.513162 0.056069
EX -0.133042 0.092860 -0.383760 -0.194388 0.019938 -0.096404 -0.180817 -0.091208 0.254250 0.271043 -0.166016 -0.308517 -0.089020 0.048508 0.150801 0.455956 0.020481 0.236374 -0.418347 0.056707 -0.074564 -0.047469 -0.229629 -0.121439 0.457774 -0.055748 -0.498975 0.106385 -0.408507 0.317063 -0.072866 0.409065 0.316067 0.077414 0.097112 -0.339429 -0.051432 0.092693 0.001351 -0.422294 0.098397 0.162674 -0.187212 -0.146352 0.177498 0.058739 0.540063 0.056132 -0.135738 -0.173860
RBS 0.089001 0.176677 0.246491 -0.112567 -0.066331 0.016226 0.378671 -0.167767 -0.085728 -0.068708 0.027701 -0.275693 0.203941 -0.036390 0.085559 -0.112436 -0.072431 -0.158082 -0.180951 -0.083838 0.044642 0.059536 -0.304761 -0.040489 -0.183502 0.162818 -0.047020 0.206587 0.320971 0.144782 -0.284627 0.122080 -0.302386 0.102153 0.115250 -0.015786 0.041399 -0.143356 -0.150711 0.290394 0.056171 0.031514 0.001701 -0.028242 0.097525 0.055053 -0.064892 0.194371 -0.147575 0.019060
RP 0.016002 0.212059 0.094861 -0.184634 0.000214 -0.034970 0.258862 -0.125061 0.116151 0.100128 -0.017862 -0.298877 0.146203 0.111790 0.028414 0.039278 -0.013017 0.025916 -0.268762 -0.058493 -0.019646 -0.009054 -0.361477 -0.083702 -0.009614 0.119234 -0.213830 0.245667 0.125007 0.232211 -0.237473 0.218598 -0.090293 0.038686 0.131286 -0.074356 0.058507 -0.073206 -0.117641 0.145406 0.152668 0.128276 0.046703 -0.111938 0.137052 0.098783 0.100580 0.168554 -0.160960 0.009448
PDT -0.118376 0.185392 -0.176144 -0.103523 0.030458 -0.036467 -0.071481 -0.049046 0.182001 0.070136 -0.054924 -0.124852 0.069155 0.091165 0.013363 0.136593 0.035959 0.041595 -0.248627 0.032501 -0.092377 -0.010056 -0.161024 -0.051604 0.236172 0.025736 -0.314271 0.074745 -0.222694 0.223552 -0.023845 0.168503 0.155652 0.087228 0.039688 -0.171028 -0.096790 0.064130 -0.040058 -0.205687 0.116307 0.039265 -0.107527 -0.157509 0.079377 0.024091 0.243284 -0.087064 0.020930 -0.047428
# -0.287729 -0.204217 -0.398676 0.466758 0.130511 0.072185 -0.870615 0.480429 0.043346 -0.482101 0.089969 1.006898 -0.134446 -0.092758 -0.442649 -0.269312 0.161618 -0.188554 0.706982 0.276365 -0.148193 -0.128343 1.077813 0.242562 0.062049 -0.276700 0.374090 -0.645771 -0.571936 -0.597495 0.868037 -0.846046 0.587091 -0.155414 -0.575572 0.242765 -0.347560 0.456765 0.389451 -0.652261 -0.231393 -0.472074 -0.155001 -0.045206 -0.359021 -0.163613 -0.338670 -1.034572 0.886265 0.250144
FW -0.200781 -0.494631 -0.809586 0.170932 -0.062209 -0.218942 -1.272958 0.459392 0.218245 0.087332 0.048247 0.380389 -0.527887 -0.287653 -0.000972 0.597253 -0.182214 0.247562 0.252240 0.102079 -0.173523 -0.067217 0.784658 0.006098 0.665145 -0.169435 0.177293 -0.406698 -0.789572 -0.433449 0.646877 -0.159345 0.973525 0.034846 -0.464385 -0.378307 -0.256257 0.249510 0.237597 -1.364745 -0.342518 -0.450288 -0.538249 0.047461 0.219474 0.006134 0.657802 -0.823823 0.225598 -0.280929
WP$ 0.028006 -0.077050 -0.015920 0.017329 -0.033925 -0.021347 -0.011300 -0.006209 -0.043296 0.001332 0.021325 -0.052905 -0.051356 -0.112056 0.048878 0.058442 -0.046169 0.053366 0.018252 -0.055276 0.044018 0.026584 0.001427 0.013621 0.046504 0.022625 0.062982 -0.031172 -0.000142 -0.055683 0.034761 0.054344 0.006282 0.029837 -0.021844 -0.029078 0.026828 -0.029594 -0.025311 -0.046736 -0.070439 -0.028393 -0.042141 0.072778 0.028439 -0.038108 0.038954 0.021893 -0.039289 -0.048638
UH -0.254420 -0.228022 -0.752874 -0.006386 -0.023492 -0.185380 -0.893504 0.258483 0.314857 0.189686 -0.071030 0.086232 -0.359980 -0.069097 0.038232 0.630696 -0.053146 0.326778 -0.055585 0.113758 -0.122254 -0.115433 0.368618 -0.039371 0.716360 -0.164711 -0.256517 -0.260649 -0.791869 -0.065583 0.478354 0.118626 0.839717 0.026402 -0.223114 -0.386927 -0.200219 0.272701 0.157092 -1.110241 -0.132814 -0.137201 -0.412398 -0.030695 0.185427 -0.046154 0.638222 -0.548184 0.094128 -0.248340
SYM -0.284832 -0.226336 -0.861864 -0.005525 0.009991 -0.207897 -1.066521 0.296730 0.408458 0.215788 -0.083300 0.169683 -0.414265 -0.065218 -0.016927 0.693259 -0.041347 0.335474 -0.065280 0.160137 -0.171289 -0.114329 0.475021 -0.046069 0.816748 -0.213313 -0.306762 -0.296395 -0.910366 -0.097910 0.537265 0.084611 0.992826 0.019380 -0.290059 -0.450036 -0.240581 0.342657 0.200617 -1.288606 -0.123412 -0.196743 -0.466110 -0.088510 0.209817 -0.001768 0.704220 -0.703302 0.197616 -0.259466